genomestart 182
trait 1 1.6892928463184713 0.9141843839952712 1.3601942122423614 0 0.8282213665588626 0.7224625002577891 0.043332614387006425 0.21113339758198316
node 1 1 1 1 SigmoidSteepenedActivation
node 2 1 1 1 SigmoidSteepenedActivation
node 3 1 1 1 SigmoidSteepenedActivation
node 4 1 1 1 SigmoidSteepenedActivation
node 5 1 1 3 SigmoidSteepenedActivation
node 6 1 0 0 SigmoidSteepenedActivation
node 16 1 0 2 SigmoidSteepenedActivation
node 283 1 0 0 SigmoidSteepenedActivation
gene 1 1 6 -1.9647737841141961 false 80 -1.9647737841141961 true
gene 1 2 6 -1.1510932844628459 false 81 -1.1510932844628459 true
gene 1 3 6 1.1471941696428496 false 82 1.1471941696428496 true
gene 1 4 6 6.4221160328296705 false 83 6.4221160328296705 true
gene 1 1 16 -0.2814787605082599 false 240 -0.2814787605082599 true
gene 1 2 16 0.33265826487845146 false 241 0.33265826487845146 true
gene 1 4 16 -1.686023463498319 false 243 -1.686023463498319 true
gene 1 5 16 0.07038472016237085 false 244 0.07038472016237085 true
gene 1 6 16 -2.532669945853652 false 245 -2.532669945853652 true
gene 1 2 283 2.406015453971272 false 1078 2.406015453971272 true
gene 1 283 6 -2.9431748971368403 false 1079 -2.9431748971368403 true
gene 1 6 6 1.206198465775207 true 1116 1.206198465775207 true
gene 1 16 16 1.366402721241682 true 1203 1.366402721241682 true
gene 1 3 16 -5.428307525886051 false 1569 -5.428307525886051 true
gene 1 5 283 1.7358097107687893 false 1637 1.7358097107687893 true
gene 1 283 16 9.873428952333379 false 1664 0 true
genomeend 182
