genomestart 159
trait 1 0.8673729395980319 0.11144513401193715 0.21591089869307867 0.16192791535137407 0.029130450709407202 0.8809077788608441 0.39615004499531925 0.9391487111250021
node 1 1 1 1 SigmoidSteepenedActivation
node 2 1 1 1 SigmoidSteepenedActivation
node 3 1 1 1 SigmoidSteepenedActivation
node 4 1 1 1 SigmoidSteepenedActivation
node 5 1 1 3 SigmoidSteepenedActivation
node 6 1 0 0 SigmoidSteepenedActivation
node 16 1 0 2 SigmoidSteepenedActivation
node 104 1 0 0 SigmoidSteepenedActivation
node 134 1 0 0 SigmoidSteepenedActivation
node 152 1 0 0 SigmoidSteepenedActivation
node 196 1 0 0 SigmoidSteepenedActivation
node 233 1 0 0 SigmoidSteepenedActivation
node 321 1 0 0 SigmoidSteepenedActivation
node 366 1 0 0 SigmoidSteepenedActivation
node 426 1 0 0 SigmoidSteepenedActivation
node 478 1 0 0 SigmoidSteepenedActivation
node 669 1 0 0 SigmoidSteepenedActivation
node 854 1 0 0 SigmoidSteepenedActivation
node 931 1 0 0 SigmoidSteepenedActivation
node 1074 1 0 0 SigmoidSteepenedActivation
node 1148 1 0 0 SigmoidSteepenedActivation
node 1184 1 0 0 SigmoidSteepenedActivation
node 1271 1 0 0 SigmoidSteepenedActivation
node 1427 1 0 0 SigmoidSteepenedActivation
node 1607 1 0 0 SigmoidSteepenedActivation
node 1902 1 0 0 SigmoidSteepenedActivation
node 2011 1 0 0 SigmoidSteepenedActivation
node 2653 1 0 0 SigmoidSteepenedActivation
node 3715 1 0 0 SigmoidSteepenedActivation
node 4305 1 0 0 SigmoidSteepenedActivation
gene 1 1 6 0.26067814710905357 false 80 0.26067814710905357 true
gene 1 2 6 -0.15219832395234764 false 81 -0.15219832395234764 true
gene 1 3 6 -0.31941027605934075 false 82 -0.31941027605934075 true
gene 1 4 6 -0.5922617352719092 false 83 -0.5922617352719092 true
gene 1 1 16 0.03060975132875296 false 240 0.03060975132875296 true
gene 1 2 16 0.1633628316607252 false 241 0.1633628316607252 true
gene 1 4 16 -0.6814933125356659 false 243 -0.6814933125356659 true
gene 1 5 16 1.295531734376606 false 244 1.295531734376606 true
gene 1 6 16 1.097294965754727 false 245 1.097294965754727 true
gene 1 6 6 -0.3192308654691888 true 426 -0.3192308654691888 true
gene 1 5 6 -0.6479220518903348 false 498 -0.6479220518903348 true
gene 1 2 104 2.492876248382464 false 511 2.492876248382464 true
gene 1 104 6 2.6535161884594483 false 512 2.6535161884594483 true
gene 1 3 16 -2.7165879311450785 false 593 -2.7165879311450785 true
gene 1 3 134 0.9188787512867558 false 636 0.9188787512867558 true
gene 1 134 6 -1.219040396133313 false 637 -1.219040396133313 true
gene 1 1 152 0.8966304053275894 false 705 0.8966304053275894 true
gene 1 152 16 -0.12853425123526305 false 706 -0.12853425123526305 true
gene 1 1 196 0.4778903936351489 false 867 0.4778903936351489 true
gene 1 196 6 -1.5215169022795123 false 868 -1.5215169022795123 true
gene 1 104 196 0.9425166740725799 false 884 0.9425166740725799 true
gene 1 1 233 -4.092515153730119 false 1033 -4.092515153730119 true
gene 1 233 152 -0.3910418853421541 false 1034 -0.3910418853421541 true
gene 1 3 321 -0.871252855919868 false 1467 -0.871252855919868 true
gene 1 321 134 1.8915756004808113 false 1468 1.8915756004808113 true
gene 1 6 366 -0.24982147458132703 false 1707 -0.24982147458132703 true
gene 1 366 16 -0.8123230616987396 false 1708 -0.8123230616987396 true
gene 1 366 152 2.605941515388501 false 1849 2.605941515388501 true
gene 1 104 426 0.7100900652108378 false 2051 0.7100900652108378 true
gene 1 426 6 -0.4534442629337394 false 2052 -0.4534442629337394 true
gene 1 366 478 0.5674447676991684 false 2359 0.5674447676991684 true
gene 1 478 16 -0.5475154697915652 false 2360 -0.5475154697915652 true
gene 1 2 321 -0.15811338776945355 false 3240 -0.15811338776945355 true
gene 1 5 478 -1.0041224715462598 false 3369 -1.0041224715462598 true
gene 1 366 669 0.31049645374184875 false 3535 0.31049645374184875 true
gene 1 669 152 -2.950850174276156 false 3536 -2.950850174276156 true
gene 1 3 478 1.8303385839223882 false 4286 1.8303385839223882 true
gene 1 1 854 0.6636556418416966 false 4724 0.6636556418416966 true
gene 1 854 196 -1.1247068623299015 false 4725 -1.1247068623299015 true
gene 1 233 16 -0.18751076592489987 false 4991 -0.18751076592489987 true
gene 1 3 931 -0.28707930235196955 false 5204 -0.28707930235196955 true
gene 1 931 134 -1.0205235423726724 false 5205 -1.0205235423726724 true
gene 1 478 478 -0.8479006892714791 true 5221 -0.8479006892714791 true
gene 1 6 1074 -0.18649304047963505 false 6094 -0.18649304047963505 true
gene 1 1074 366 -1.0110173316521547 false 6095 -1.0110173316521547 true
gene 1 1 134 0.472625541065422 false 6323 0.472625541065422 true
gene 1 1 1148 1.5791738142374938 false 6575 1.5791738142374938 true
gene 1 1148 854 3.2230100991131088 false 6576 3.2230100991131088 true
gene 1 3 1184 -0.606611279691162 false 6886 -0.606611279691162 true
gene 1 1184 931 -0.6720390858578276 false 6887 -0.6720390858578276 true
gene 1 16 134 0.3094542947906165 true 7138 0.3094542947906165 true
gene 1 1 1271 -1.14414591355669 false 7465 -1.14414591355669 true
gene 1 1271 134 3.6357549692388154 false 7466 3.6357549692388154 true
gene 1 426 1427 1.2474312017956213 false 8498 1.2474312017956213 true
gene 1 1427 6 0.8314657165606902 false 8499 0.8314657165606902 true
gene 1 854 478 0.8200942471720347 false 8644 0.8200942471720347 true
gene 1 669 1607 0.16339750700792258 false 9739 0.16339750700792258 true
gene 1 1607 152 0.21194781022052728 false 9740 0.21194781022052728 true
gene 1 1 104 1.0129721420460447 false 9996 1.0129721420460447 true
gene 1 1074 1074 -0.2794952470184032 true 10348 -0.2794952470184032 true
gene 1 669 669 -0.8959935265421679 true 11017 -0.8959935265421679 true
gene 1 3 1902 -0.7457349968001659 false 11676 -0.7457349968001659 true
gene 1 1902 1184 1.1654450781887153 false 11677 1.1654450781887153 true
gene 1 1148 1607 0.6652473791254471 false 12060 0.6652473791254471 true
gene 1 1 2011 0.30718819978399337 false 12391 0.30718819978399337 true
gene 1 2011 196 0.5262845931652811 false 12392 0.5262845931652811 true
gene 1 233 1607 -0.7586807490008387 false 13341 -0.7586807490008387 true
gene 1 854 854 0.23135283132907813 true 14042 0.23135283132907813 true
gene 1 1148 931 -3.3054714030029997 false 16078 -2.8662424309630197 true
gene 1 4 1607 -0.20009054626369344 false 16292 -0.20009054626369344 true
gene 1 1 2653 -0.49200849283744075 false 16683 -0.49200849283744075 true
gene 1 2653 1271 -0.42859184422284086 false 16684 -0.22536431448082644 true
gene 1 2011 2011 -4.99767185948001 true 17858 -4.99767185948001 true
gene 1 2011 478 -8.651380126067341 false 18151 -8.651380126067341 true
gene 1 16 16 -8.383705176260806 true 18555 -8.383705176260806 true
gene 1 1184 1184 -1.683781573465206 true 19484 -1.683781573465206 true
gene 1 3 1074 5.209042385851812 false 21312 5.209042385851812 true
gene 1 2653 2653 -5.377062116305352 true 21881 -2.688531058152676 true
gene 1 931 1184 -6.45497683245745 true 22273 -6.45497683245745 true
gene 1 134 16 6.887000595072221 false 22817 6.887000595072221 true
gene 1 321 854 6.608834690183021 false 23059 0 true
gene 1 1148 321 9.99509426575558 false 23550 9.99509426575558 true
gene 1 6 3715 1 true 23878 0 true
gene 1 3715 6 -0.05582211884230481 false 23879 0 true
gene 1 426 16 7.924231888335131 false 24132 0 true
gene 1 321 1074 7.140102911302007 false 24460 0 true
gene 1 233 233 8.793175028972097 true 25899 0 true
gene 1 426 854 -0.032422854060178925 false 26458 -0.032422854060178925 true
gene 1 196 1427 -4.6082038255902695 false 26861 -4.6082038255902695 true
gene 1 1902 1902 -3.262879950904112 true 27150 0 true
gene 1 6 4305 1 false 27606 0 true
gene 1 4305 366 -0.23087396985654152 false 27607 0 true
gene 1 321 321 2.878388465250306 true 28228 0 true
gene 1 931 931 -7.968663522156919 true 28637 0 true
genomeend 159
